<?xml version="1.0"?>
<opencv_storage>
<cascade>
  <stageType>BOOST</stageType>
  <featureType>HAAR</featureType>
  <height>24</height>
  <width>24</width>
  <stageParams>
    <boostType>GAB</boostType>
    <minHitRate>9.9500000476837158e-01</minHitRate>
    <maxFalseAlarm>5.0000000000000000e-01</maxFalseAlarm>
    <weightTrimRate>9.4999998807907104e-01</weightTrimRate>
    <maxDepth>1</maxDepth>
    <maxWeakCount>100</maxWeakCount></stageParams>
  <featureParams>
    <maxCatCount>0</maxCatCount>
    <featSize>1</featSize>
    <mode>BASIC</mode></featureParams>
  <stageNum>13</stageNum>
  <stages>
    <!-- stage 0 -->
    <_>
      <maxWeakCount>1</maxWeakCount>
      <stageThreshold>9.8726117610931396e-01</stageThreshold>
      <weakClassifiers>
        <_>
          <internalNodes>
            0 -1 2 -2.1174661815166473e-02</internalNodes>
          <leafValues>
            9.8726117610931396e-01 -1.</leafValues></_></weakClassifiers></_>
    <!-- stage 1 -->
    <_>
      <maxWeakCount>1</maxWeakCount>
      <stageThreshold>9.7468352317810059e-01</stageThreshold>
      <weakClassifiers>
        <_>
          <internalNodes>
            0 -1 8 1.1494272202253342e-01</internalNodes>
          <leafValues>
            -1. 9.7468352317810059e-01</leafValues></_></weakClassifiers></_>
    <!-- stage 2 -->
    <_>
      <maxWeakCount>2</maxWeakCount>
      <stageThreshold>1.3723429292440414e-03</stageThreshold>
      <weakClassifiers>
        <_>
          <internalNodes>
            0 -1 15 6.8709487095475197e-03</internalNodes>
          <leafValues>
            -9.2682927846908569e-01 9.6153843402862549e-01</leafValues></_>
        <_>
          <internalNodes>
            0 -1 19 -2.9210580512881279e-02</internalNodes>
          <leafValues>
            9.2820161581039429e-01 -8.8247299194335938e-01</leafValues></_></weakClassifiers></_>
    <!-- stage 3 -->
    <_>
      <maxWeakCount>2</maxWeakCount>
      <stageThreshold>-2.1555030718445778e-02</stageThreshold>
      <weakClassifiers>
        <_>
          <internalNodes>
            0 -1 1 -1.9138269126415253e-02</internalNodes>
          <leafValues>
            9.1358023881912231e-01 -9.7368419170379639e-01</leafValues></_>
        <_>
          <internalNodes>
            0 -1 17 -8.9177172631025314e-03</internalNodes>
          <leafValues>
            9.5212918519973755e-01 -8.6483269929885864e-01</leafValues></_></weakClassifiers></_>
    <!-- stage 4 -->
    <_>
      <maxWeakCount>2</maxWeakCount>
      <stageThreshold>-1.1008460074663162e-01</stageThreshold>
      <weakClassifiers>
        <_>
          <internalNodes>
            0 -1 3 -7.8493073582649231e-02</internalNodes>
          <leafValues>
            8.5542166233062744e-01 -9.4444441795349121e-01</leafValues></_>
        <_>
          <internalNodes>
            0 -1 0 -1.2873645126819611e-01</internalNodes>
          <leafValues>
            8.3435982465744019e-01 -9.3322432041168213e-01</leafValues></_></weakClassifiers></_>
    <!-- stage 5 -->
    <_>
      <maxWeakCount>2</maxWeakCount>
      <stageThreshold>-1.1920704692602158e-01</stageThreshold>
      <weakClassifiers>
        <_>
          <internalNodes>
            0 -1 6 -9.1969668865203857e-03</internalNodes>
          <leafValues>
            8.3030301332473755e-01 -8.6301368474960327e-01</leafValues></_>
        <_>
          <internalNodes>
            0 -1 5 -1.8469008803367615e-01</internalNodes>
          <leafValues>
            7.6210790872573853e-01 -9.4951009750366211e-01</leafValues></_></weakClassifiers></_>
    <!-- stage 6 -->
    <_>
      <maxWeakCount>2</maxWeakCount>
      <stageThreshold>4.1609305888414383e-02</stageThreshold>
      <weakClassifiers>
        <_>
          <internalNodes>
            0 -1 16 -4.3242396786808968e-03</internalNodes>
          <leafValues>
            9.3333333730697632e-01 -7.5000000000000000e-01</leafValues></_>
        <_>
          <internalNodes>
            0 -1 21 2.4747287854552269e-02</internalNodes>
          <leafValues>
            -8.5455071926116943e-01 7.9160928726196289e-01</leafValues></_></weakClassifiers></_>
    <!-- stage 7 -->
    <_>
      <maxWeakCount>4</maxWeakCount>
      <stageThreshold>-1.2548340559005737e+00</stageThreshold>
      <weakClassifiers>
        <_>
          <internalNodes>
            0 -1 26 3.4163579344749451e-02</internalNodes>
          <leafValues>
            -7.0786517858505249e-01 9.1946309804916382e-01</leafValues></_>
        <_>
          <internalNodes>
            0 -1 13 1.9734876696020365e-04</internalNodes>
          <leafValues>
            -6.0930210351943970e-01 8.4841746091842651e-01</leafValues></_>
        <_>
          <internalNodes>
            0 -1 4 -5.2930894307792187e-03</internalNodes>
          <leafValues>
            9.1396558284759521e-01 -5.7871085405349731e-01</leafValues></_>
        <_>
          <internalNodes>
            0 -1 23 4.9069923989009112e-05</internalNodes>
          <leafValues>
            -9.2920851707458496e-01 6.4104408025741577e-01</leafValues></_></weakClassifiers></_>
    <!-- stage 8 -->
    <_>
      <maxWeakCount>2</maxWeakCount>
      <stageThreshold>4.3005432933568954e-02</stageThreshold>
      <weakClassifiers>
        <_>
          <internalNodes>
            0 -1 12 1.6865537036210299e-03</internalNodes>
          <leafValues>
            -6.7032968997955322e-01 9.1836732625961304e-01</leafValues></_>
        <_>
          <internalNodes>
            0 -1 20 -1.5428910264745355e-03</internalNodes>
          <leafValues>
            7.1333509683609009e-01 -1.</leafValues></_></weakClassifiers></_>
    <!-- stage 9 -->
    <_>
      <maxWeakCount>3</maxWeakCount>
      <stageThreshold>-6.7473739385604858e-01</stageThreshold>
      <weakClassifiers>
        <_>
          <internalNodes>
            0 -1 11 2.3884337861090899e-03</internalNodes>
          <leafValues>
            -6.4583331346511841e-01 9.5774650573730469e-01</leafValues></_>
        <_>
          <internalNodes>
            0 -1 14 -3.1156782060861588e-02</internalNodes>
          <leafValues>
            8.7422692775726318e-01 -7.0362269878387451e-01</leafValues></_>
        <_>
          <internalNodes>
            0 -1 24 -1.4246556907892227e-02</internalNodes>
          <leafValues>
            6.7471861839294434e-01 -8.7204807996749878e-01</leafValues></_></weakClassifiers></_>
    <!-- stage 10 -->
    <_>
      <maxWeakCount>4</maxWeakCount>
      <stageThreshold>-2.5371727347373962e-01</stageThreshold>
      <weakClassifiers>
        <_>
          <internalNodes>
            0 -1 25 4.2399719357490540e-02</internalNodes>
          <leafValues>
            -7.2727274894714355e-01 9.2000001668930054e-01</leafValues></_>
        <_>
          <internalNodes>
            0 -1 7 -3.4196950495243073e-02</internalNodes>
          <leafValues>
            7.3926186561584473e-01 -7.8424549102783203e-01</leafValues></_>
        <_>
          <internalNodes>
            0 -1 9 -2.3889848962426186e-03</internalNodes>
          <leafValues>
            6.6409784555435181e-01 -8.0133783817291260e-01</leafValues></_>
        <_>
          <internalNodes>
            0 -1 22 1.3994893990457058e-02</internalNodes>
          <leafValues>
            -9.0004545450210571e-01 5.9370309114456177e-01</leafValues></_></weakClassifiers></_>
    <!-- stage 11 -->
    <_>
      <maxWeakCount>2</maxWeakCount>
      <stageThreshold>5.1414813846349716e-02</stageThreshold>
      <weakClassifiers>
        <_>
          <internalNodes>
            0 -1 10 7.2498265653848648e-03</internalNodes>
          <leafValues>
            -8.2051283121109009e-01 8.6250001192092896e-01</leafValues></_>
        <_>
          <internalNodes>
            0 -1 27 6.3965748995542526e-04</internalNodes>
          <leafValues>
            -7.3484164476394653e-01 8.7192761898040771e-01</leafValues></_></weakClassifiers></_>
    <!-- stage 12 -->
    <_>
      <maxWeakCount>1</maxWeakCount>
      <stageThreshold>7.7272725105285645e-01</stageThreshold>
      <weakClassifiers>
        <_>
          <internalNodes>
            0 -1 18 -2.0832354202866554e-03</internalNodes>
          <leafValues>
            -1. 7.7272725105285645e-01</leafValues></_></weakClassifiers></_></stages>
  <features>
    <_>
      <rects>
        <_>
          0 3 18 12 -1.</_>
        <_>
          0 7 18 4 3.</_></rects>
      <tilted>0</tilted></_>
    <_>
      <rects>
        <_>
          0 14 24 2 -1.</_>
        <_>
          8 14 8 2 3.</_></rects>
      <tilted>0</tilted></_>
    <_>
      <rects>
        <_>
          2 7 8 3 -1.</_>
        <_>
          6 7 4 3 2.</_></rects>
      <tilted>0</tilted></_>
    <_>
      <rects>
        <_>
          2 15 21 4 -1.</_>
        <_>
          9 15 7 4 3.</_></rects>
      <tilted>0</tilted></_>
    <_>
      <rects>
        <_>
          2 23 6 1 -1.</_>
        <_>
          5 23 3 1 2.</_></rects>
      <tilted>0</tilted></_>
    <_>
      <rects>
        <_>
          3 6 21 13 -1.</_>
        <_>
          10 6 7 13 3.</_></rects>
      <tilted>0</tilted></_>
    <_>
      <rects>
        <_>
          3 15 8 4 -1.</_>
        <_>
          3 17 8 2 2.</_></rects>
      <tilted>0</tilted></_>
    <_>
      <rects>
        <_>
          4 4 9 6 -1.</_>
        <_>
          7 4 3 6 3.</_></rects>
      <tilted>0</tilted></_>
    <_>
      <rects>
        <_>
          4 7 17 12 -1.</_>
        <_>
          4 11 17 4 3.</_></rects>
      <tilted>0</tilted></_>
    <_>
      <rects>
        <_>
          4 17 2 4 -1.</_>
        <_>
          4 19 2 2 2.</_></rects>
      <tilted>0</tilted></_>
    <_>
      <rects>
        <_>
          5 4 10 8 -1.</_>
        <_>
          5 4 5 4 2.</_>
        <_>
          10 8 5 4 2.</_></rects>
      <tilted>0</tilted></_>
    <_>
      <rects>
        <_>
          5 7 7 3 -1.</_>
        <_>
          5 8 7 1 3.</_></rects>
      <tilted>0</tilted></_>
    <_>
      <rects>
        <_>
          5 7 14 3 -1.</_>
        <_>
          5 8 14 1 3.</_></rects>
      <tilted>0</tilted></_>
    <_>
      <rects>
        <_>
          6 7 13 3 -1.</_>
        <_>
          6 8 13 1 3.</_></rects>
      <tilted>0</tilted></_>
    <_>
      <rects>
        <_>
          7 7 6 16 -1.</_>
        <_>
          7 7 3 8 2.</_>
        <_>
          10 15 3 8 2.</_></rects>
      <tilted>0</tilted></_>
    <_>
      <rects>
        <_>
          8 4 9 3 -1.</_>
        <_>
          8 5 9 1 3.</_></rects>
      <tilted>0</tilted></_>
    <_>
      <rects>
        <_>
          8 22 6 2 -1.</_>
        <_>
          8 23 6 1 2.</_></rects>
      <tilted>0</tilted></_>
    <_>
      <rects>
        <_>
          9 10 5 6 -1.</_>
        <_>
          9 13 5 3 2.</_></rects>
      <tilted>0</tilted></_>
    <_>
      <rects>
        <_>
          10 0 8 3 -1.</_>
        <_>
          14 0 4 3 2.</_></rects>
      <tilted>0</tilted></_>
    <_>
      <rects>
        <_>
          10 8 12 3 -1.</_>
        <_>
          14 8 4 3 3.</_></rects>
      <tilted>0</tilted></_>
    <_>
      <rects>
        <_>
          10 22 9 2 -1.</_>
        <_>
          10 23 9 1 2.</_></rects>
      <tilted>0</tilted></_>
    <_>
      <rects>
        <_>
          11 9 8 8 -1.</_>
        <_>
          11 9 4 4 2.</_>
        <_>
          15 13 4 4 2.</_></rects>
      <tilted>0</tilted></_>
    <_>
      <rects>
        <_>
          11 10 5 6 -1.</_>
        <_>
          11 12 5 2 3.</_></rects>
      <tilted>0</tilted></_>
    <_>
      <rects>
        <_>
          14 4 2 3 -1.</_>
        <_>
          14 5 2 1 3.</_></rects>
      <tilted>0</tilted></_>
    <_>
      <rects>
        <_>
          15 5 4 12 -1.</_>
        <_>
          15 9 4 4 3.</_></rects>
      <tilted>0</tilted></_>
    <_>
      <rects>
        <_>
          16 18 8 6 -1.</_>
        <_>
          20 18 4 6 2.</_></rects>
      <tilted>0</tilted></_>
    <_>
      <rects>
        <_>
          17 16 6 8 -1.</_>
        <_>
          20 16 3 8 2.</_></rects>
      <tilted>0</tilted></_>
    <_>
      <rects>
        <_>
          18 16 2 6 -1.</_>
        <_>
          18 16 1 3 2.</_>
        <_>
          19 19 1 3 2.</_></rects>
      <tilted>0</tilted></_></features></cascade>
</opencv_storage>
